digraph Tree {
node [shape=box] ;
0 [label="failures <= 0.5\ngini = 0.464\nsamples = 783\nvalue = [287, 496]"] ;
1 [label="higher <= 0.5\ngini = 0.402\nsamples = 646\nvalue = [180, 466]"] ;
0 -> 1 [labeldistance=2.5, labelangle=45, headlabel="True"] ;
2 [label="Dalc <= 1.5\ngini = 0.463\nsamples = 33\nvalue = [21, 12]"] ;
1 -> 2 ;
3 [label="absences <= 0.5\ngini = 0.5\nsamples = 20\nvalue = [10, 10]"] ;
2 -> 3 ;
4 [label="goout <= 1.5\ngini = 0.245\nsamples = 7\nvalue = [6, 1]"] ;
3 -> 4 ;
5 [label="gini = 0.0\nsamples = 1\nvalue = [0, 1]"] ;
4 -> 5 ;
6 [label="gini = 0.0\nsamples = 6\nvalue = [6, 0]"] ;
4 -> 6 ;
7 [label="freetime <= 1.5\ngini = 0.426\nsamples = 13\nvalue = [4, 9]"] ;
3 -> 7 ;
8 [label="gini = 0.0\nsamples = 2\nvalue = [2, 0]"] ;
7 -> 8 ;
9 [label="Walc <= 3.5\ngini = 0.298\nsamples = 11\nvalue = [2, 9]"] ;
7 -> 9 ;
10 [label="internet <= 0.5\ngini = 0.18\nsamples = 10\nvalue = [1, 9]"] ;
9 -> 10 ;
11 [label="traveltime <= 1.5\ngini = 0.444\nsamples = 3\nvalue = [1, 2]"] ;
10 -> 11 ;
12 [label="gini = 0.0\nsamples = 1\nvalue = [1, 0]"] ;
11 -> 12 ;
13 [label="gini = 0.0\nsamples = 2\nvalue = [0, 2]"] ;
11 -> 13 ;
14 [label="gini = 0.0\nsamples = 7\nvalue = [0, 7]"] ;
10 -> 14 ;
15 [label="gini = 0.0\nsamples = 1\nvalue = [1, 0]"] ;
9 -> 15 ;
16 [label="famrel <= 2.0\ngini = 0.26\nsamples = 13\nvalue = [11, 2]"] ;
2 -> 16 ;
17 [label="gini = 0.0\nsamples = 1\nvalue = [0, 1]"] ;
16 -> 17 ;
18 [label="absences <= 1.0\ngini = 0.153\nsamples = 12\nvalue = [11, 1]"] ;
16 -> 18 ;
19 [label="studytime <= 1.5\ngini = 0.375\nsamples = 4\nvalue = [3, 1]"] ;
18 -> 19 ;
20 [label="gini = 0.0\nsamples = 3\nvalue = [3, 0]"] ;
19 -> 20 ;
21 [label="gini = 0.0\nsamples = 1\nvalue = [0, 1]"] ;
19 -> 21 ;
22 [label="gini = 0.0\nsamples = 8\nvalue = [8, 0]"] ;
18 -> 22 ;
23 [label="absences <= 8.5\ngini = 0.384\nsamples = 613\nvalue = [159, 454]"] ;
1 -> 23 ;
24 [label="traveltime <= 1.5\ngini = 0.358\nsamples = 536\nvalue = [125, 411]"] ;
23 -> 24 ;
25 [label="freetime <= 1.5\ngini = 0.31\nsamples = 334\nvalue = [64, 270]"] ;
24 -> 25 ;
26 [label="absences <= 4.5\ngini = 0.498\nsamples = 17\nvalue = [8, 9]"] ;
25 -> 26 ;
27 [label="famrel <= 3.5\ngini = 0.397\nsamples = 11\nvalue = [3, 8]"] ;
26 -> 27 ;
28 [label="famsup <= 0.5\ngini = 0.375\nsamples = 4\nvalue = [3, 1]"] ;
27 -> 28 ;
29 [label="gini = 0.0\nsamples = 3\nvalue = [3, 0]"] ;
28 -> 29 ;
30 [label="gini = 0.0\nsamples = 1\nvalue = [0, 1]"] ;
28 -> 30 ;
31 [label="gini = 0.0\nsamples = 7\nvalue = [0, 7]"] ;
27 -> 31 ;
32 [label="goout <= 3.5\ngini = 0.278\nsamples = 6\nvalue = [5, 1]"] ;
26 -> 32 ;
33 [label="gini = 0.0\nsamples = 4\nvalue = [4, 0]"] ;
32 -> 33 ;
34 [label="studytime <= 1.5\ngini = 0.5\nsamples = 2\nvalue = [1, 1]"] ;
32 -> 34 ;
35 [label="gini = 0.0\nsamples = 1\nvalue = [1, 0]"] ;
34 -> 35 ;
36 [label="gini = 0.0\nsamples = 1\nvalue = [0, 1]"] ;
34 -> 36 ;
37 [label="schoolsup <= 0.5\ngini = 0.291\nsamples = 317\nvalue = [56, 261]"] ;
25 -> 37 ;
38 [label="freetime <= 2.5\ngini = 0.258\nsamples = 276\nvalue = [42, 234]"] ;
37 -> 38 ;
39 [label="goout <= 1.5\ngini = 0.073\nsamples = 53\nvalue = [2, 51]"] ;
38 -> 39 ;
40 [label="gini = 0.0\nsamples = 1\nvalue = [1, 0]"] ;
39 -> 40 ;
41 [label="internet <= 0.5\ngini = 0.038\nsamples = 52\nvalue = [1, 51]"] ;
39 -> 41 ;
42 [label="absences <= 1.0\ngini = 0.219\nsamples = 8\nvalue = [1, 7]"] ;
41 -> 42 ;
43 [label="goout <= 3.5\ngini = 0.5\nsamples = 2\nvalue = [1, 1]"] ;
42 -> 43 ;
44 [label="gini = 0.0\nsamples = 1\nvalue = [1, 0]"] ;
43 -> 44 ;
45 [label="gini = 0.0\nsamples = 1\nvalue = [0, 1]"] ;
43 -> 45 ;
46 [label="gini = 0.0\nsamples = 6\nvalue = [0, 6]"] ;
42 -> 46 ;
47 [label="gini = 0.0\nsamples = 44\nvalue = [0, 44]"] ;
41 -> 47 ;
48 [label="paid <= 0.5\ngini = 0.294\nsamples = 223\nvalue = [40, 183]"] ;
38 -> 48 ;
49 [label="freetime <= 3.5\ngini = 0.238\nsamples = 174\nvalue = [24, 150]"] ;
48 -> 49 ;
50 [label="activities <= 0.5\ngini = 0.31\nsamples = 99\nvalue = [19, 80]"] ;
49 -> 50 ;
51 [label="famrel <= 4.5\ngini = 0.405\nsamples = 39\nvalue = [11, 28]"] ;
50 -> 51 ;
52 [label="absences <= 7.0\ngini = 0.342\nsamples = 32\nvalue = [7, 25]"] ;
51 -> 52 ;
53 [label="health <= 3.5\ngini = 0.312\nsamples = 31\nvalue = [6, 25]"] ;
52 -> 53 ;
54 [label="health <= 2.5\ngini = 0.432\nsamples = 19\nvalue = [6, 13]"] ;
53 -> 54 ;
55 [label="internet <= 0.5\ngini = 0.198\nsamples = 9\nvalue = [1, 8]"] ;
54 -> 55 ;
56 [label="absences <= 5.0\ngini = 0.444\nsamples = 3\nvalue = [1, 2]"] ;
55 -> 56 ;
57 [label="gini = 0.0\nsamples = 1\nvalue = [1, 0]"] ;
56 -> 57 ;
58 [label="gini = 0.0\nsamples = 2\nvalue = [0, 2]"] ;
56 -> 58 ;
59 [label="gini = 0.0\nsamples = 6\nvalue = [0, 6]"] ;
55 -> 59 ;
60 [label="famsup <= 0.5\ngini = 0.5\nsamples = 10\nvalue = [5, 5]"] ;
54 -> 60 ;
61 [label="gini = 0.0\nsamples = 2\nvalue = [2, 0]"] ;
60 -> 61 ;
62 [label="absences <= 3.0\ngini = 0.469\nsamples = 8\nvalue = [3, 5]"] ;
60 -> 62 ;
63 [label="gini = 0.0\nsamples = 4\nvalue = [0, 4]"] ;
62 -> 63 ;
64 [label="famrel <= 2.5\ngini = 0.375\nsamples = 4\nvalue = [3, 1]"] ;
62 -> 64 ;
65 [label="gini = 0.0\nsamples = 1\nvalue = [0, 1]"] ;
64 -> 65 ;
66 [label="gini = 0.0\nsamples = 3\nvalue = [3, 0]"] ;
64 -> 66 ;
67 [label="gini = 0.0\nsamples = 12\nvalue = [0, 12]"] ;
53 -> 67 ;
68 [label="gini = 0.0\nsamples = 1\nvalue = [1, 0]"] ;
52 -> 68 ;
69 [label="health <= 2.5\ngini = 0.49\nsamples = 7\nvalue = [4, 3]"] ;
51 -> 69 ;
70 [label="gini = 0.0\nsamples = 3\nvalue = [0, 3]"] ;
69 -> 70 ;
71 [label="gini = 0.0\nsamples = 4\nvalue = [4, 0]"] ;
69 -> 71 ;
72 [label="Walc <= 3.5\ngini = 0.231\nsamples = 60\nvalue = [8, 52]"] ;
50 -> 72 ;
73 [label="absences <= 6.5\ngini = 0.153\nsamples = 48\nvalue = [4, 44]"] ;
72 -> 73 ;
74 [label="famrel <= 4.5\ngini = 0.124\nsamples = 45\nvalue = [3, 42]"] ;
73 -> 74 ;
75 [label="goout <= 3.5\ngini = 0.219\nsamples = 24\nvalue = [3, 21]"] ;
74 -> 75 ;
76 [label="health <= 3.5\ngini = 0.278\nsamples = 18\nvalue = [3, 15]"] ;
75 -> 76 ;
77 [label="famsup <= 0.5\ngini = 0.165\nsamples = 11\nvalue = [1, 10]"] ;
76 -> 77 ;
78 [label="Dalc <= 1.5\ngini = 0.32\nsamples = 5\nvalue = [1, 4]"] ;
77 -> 78 ;
79 [label="goout <= 2.5\ngini = 0.444\nsamples = 3\nvalue = [1, 2]"] ;
78 -> 79 ;
80 [label="gini = 0.0\nsamples = 1\nvalue = [0, 1]"] ;
79 -> 80 ;
81 [label="gini = 0.5\nsamples = 2\nvalue = [1, 1]"] ;
79 -> 81 ;
82 [label="gini = 0.0\nsamples = 2\nvalue = [0, 2]"] ;
78 -> 82 ;
83 [label="gini = 0.0\nsamples = 6\nvalue = [0, 6]"] ;
77 -> 83 ;
84 [label="Dalc <= 1.5\ngini = 0.408\nsamples = 7\nvalue = [2, 5]"] ;
76 -> 84 ;
85 [label="studytime <= 2.5\ngini = 0.278\nsamples = 6\nvalue = [1, 5]"] ;
84 -> 85 ;
86 [label="gini = 0.0\nsamples = 3\nvalue = [0, 3]"] ;
85 -> 86 ;
87 [label="health <= 4.5\ngini = 0.444\nsamples = 3\nvalue = [1, 2]"] ;
85 -> 87 ;
88 [label="gini = 0.0\nsamples = 1\nvalue = [0, 1]"] ;
87 -> 88 ;
89 [label="absences <= 2.0\ngini = 0.5\nsamples = 2\nvalue = [1, 1]"] ;
87 -> 89 ;
90 [label="gini = 0.0\nsamples = 1\nvalue = [1, 0]"] ;
89 -> 90 ;
91 [label="gini = 0.0\nsamples = 1\nvalue = [0, 1]"] ;
89 -> 91 ;
92 [label="gini = 0.0\nsamples = 1\nvalue = [1, 0]"] ;
84 -> 92 ;
93 [label="gini = 0.0\nsamples = 6\nvalue = [0, 6]"] ;
75 -> 93 ;
94 [label="gini = 0.0\nsamples = 21\nvalue = [0, 21]"] ;
74 -> 94 ;
95 [label="famsup <= 0.5\ngini = 0.444\nsamples = 3\nvalue = [1, 2]"] ;
73 -> 95 ;
96 [label="gini = 0.0\nsamples = 2\nvalue = [0, 2]"] ;
95 -> 96 ;
97 [label="gini = 0.0\nsamples = 1\nvalue = [1, 0]"] ;
95 -> 97 ;
98 [label="Walc <= 4.5\ngini = 0.444\nsamples = 12\nvalue = [4, 8]"] ;
72 -> 98 ;
99 [label="health <= 4.5\ngini = 0.444\nsamples = 6\nvalue = [4, 2]"] ;
98 -> 99 ;
100 [label="famsup <= 0.5\ngini = 0.444\nsamples = 3\nvalue = [1, 2]"] ;
99 -> 100 ;
101 [label="gini = 0.0\nsamples = 1\nvalue = [1, 0]"] ;
100 -> 101 ;
102 [label="gini = 0.0\nsamples = 2\nvalue = [0, 2]"] ;
100 -> 102 ;
103 [label="gini = 0.0\nsamples = 3\nvalue = [3, 0]"] ;
99 -> 103 ;
104 [label="gini = 0.0\nsamples = 6\nvalue = [0, 6]"] ;
98 -> 104 ;
105 [label="studytime <= 3.5\ngini = 0.124\nsamples = 75\nvalue = [5, 70]"] ;
49 -> 105 ;
106 [label="studytime <= 1.5\ngini = 0.104\nsamples = 73\nvalue = [4, 69]"] ;
105 -> 106 ;
107 [label="goout <= 1.5\ngini = 0.204\nsamples = 26\nvalue = [3, 23]"] ;
106 -> 107 ;
108 [label="gini = 0.0\nsamples = 1\nvalue = [1, 0]"] ;
107 -> 108 ;
109 [label="Dalc <= 1.5\ngini = 0.147\nsamples = 25\nvalue = [2, 23]"] ;
107 -> 109 ;
110 [label="health <= 1.5\ngini = 0.231\nsamples = 15\nvalue = [2, 13]"] ;
109 -> 110 ;
111 [label="famrel <= 3.5\ngini = 0.444\nsamples = 3\nvalue = [1, 2]"] ;
110 -> 111 ;
112 [label="gini = 0.0\nsamples = 1\nvalue = [1, 0]"] ;
111 -> 112 ;
113 [label="gini = 0.0\nsamples = 2\nvalue = [0, 2]"] ;
111 -> 113 ;
114 [label="absences <= 2.5\ngini = 0.153\nsamples = 12\nvalue = [1, 11]"] ;
110 -> 114 ;
115 [label="Walc <= 1.5\ngini = 0.32\nsamples = 5\nvalue = [1, 4]"] ;
114 -> 115 ;
116 [label="activities <= 0.5\ngini = 0.5\nsamples = 2\nvalue = [1, 1]"] ;
115 -> 116 ;
117 [label="gini = 0.0\nsamples = 1\nvalue = [1, 0]"] ;
116 -> 117 ;
118 [label="gini = 0.0\nsamples = 1\nvalue = [0, 1]"] ;
116 -> 118 ;
119 [label="gini = 0.0\nsamples = 3\nvalue = [0, 3]"] ;
115 -> 119 ;
120 [label="gini = 0.0\nsamples = 7\nvalue = [0, 7]"] ;
114 -> 120 ;
121 [label="gini = 0.0\nsamples = 10\nvalue = [0, 10]"] ;
109 -> 121 ;
122 [label="goout <= 3.5\ngini = 0.042\nsamples = 47\nvalue = [1, 46]"] ;
106 -> 122 ;
123 [label="gini = 0.0\nsamples = 29\nvalue = [0, 29]"] ;
122 -> 123 ;
124 [label="activities <= 0.5\ngini = 0.105\nsamples = 18\nvalue = [1, 17]"] ;
122 -> 124 ;
125 [label="gini = 0.0\nsamples = 10\nvalue = [0, 10]"] ;
124 -> 125 ;
126 [label="famrel <= 4.5\ngini = 0.219\nsamples = 8\nvalue = [1, 7]"] ;
124 -> 126 ;
127 [label="Dalc <= 1.5\ngini = 0.444\nsamples = 3\nvalue = [1, 2]"] ;
126 -> 127 ;
128 [label="gini = 0.0\nsamples = 1\nvalue = [1, 0]"] ;
127 -> 128 ;
129 [label="gini = 0.0\nsamples = 2\nvalue = [0, 2]"] ;
127 -> 129 ;
130 [label="gini = 0.0\nsamples = 5\nvalue = [0, 5]"] ;
126 -> 130 ;
131 [label="freetime <= 4.5\ngini = 0.5\nsamples = 2\nvalue = [1, 1]"] ;
105 -> 131 ;
132 [label="gini = 0.0\nsamples = 1\nvalue = [0, 1]"] ;
131 -> 132 ;
133 [label="gini = 0.0\nsamples = 1\nvalue = [1, 0]"] ;
131 -> 133 ;
134 [label="studytime <= 1.5\ngini = 0.44\nsamples = 49\nvalue = [16, 33]"] ;
48 -> 134 ;
135 [label="gini = 0.0\nsamples = 12\nvalue = [0, 12]"] ;
134 -> 135 ;
136 [label="famsup <= 0.5\ngini = 0.491\nsamples = 37\nvalue = [16, 21]"] ;
134 -> 136 ;
137 [label="freetime <= 3.5\ngini = 0.32\nsamples = 5\nvalue = [4, 1]"] ;
136 -> 137 ;
138 [label="gini = 0.0\nsamples = 1\nvalue = [0, 1]"] ;
137 -> 138 ;
139 [label="gini = 0.0\nsamples = 4\nvalue = [4, 0]"] ;
137 -> 139 ;
140 [label="Walc <= 3.5\ngini = 0.469\nsamples = 32\nvalue = [12, 20]"] ;
136 -> 140 ;
141 [label="Walc <= 2.5\ngini = 0.49\nsamples = 28\nvalue = [12, 16]"] ;
140 -> 141 ;
142 [label="goout <= 2.5\ngini = 0.415\nsamples = 17\nvalue = [5, 12]"] ;
141 -> 142 ;
143 [label="gini = 0.0\nsamples = 4\nvalue = [0, 4]"] ;
142 -> 143 ;
144 [label="absences <= 4.5\ngini = 0.473\nsamples = 13\nvalue = [5, 8]"] ;
142 -> 144 ;
145 [label="Dalc <= 1.5\ngini = 0.5\nsamples = 10\nvalue = [5, 5]"] ;
144 -> 145 ;
146 [label="famrel <= 2.5\ngini = 0.494\nsamples = 9\nvalue = [5, 4]"] ;
145 -> 146 ;
147 [label="gini = 0.0\nsamples = 1\nvalue = [0, 1]"] ;
146 -> 147 ;
148 [label="famrel <= 4.5\ngini = 0.469\nsamples = 8\nvalue = [5, 3]"] ;
146 -> 148 ;
149 [label="studytime <= 3.5\ngini = 0.408\nsamples = 7\nvalue = [5, 2]"] ;
148 -> 149 ;
150 [label="health <= 4.5\ngini = 0.278\nsamples = 6\nvalue = [5, 1]"] ;
149 -> 150 ;
151 [label="gini = 0.0\nsamples = 4\nvalue = [4, 0]"] ;
150 -> 151 ;
152 [label="internet <= 0.5\ngini = 0.5\nsamples = 2\nvalue = [1, 1]"] ;
150 -> 152 ;
153 [label="gini = 0.0\nsamples = 1\nvalue = [1, 0]"] ;
152 -> 153 ;
154 [label="gini = 0.0\nsamples = 1\nvalue = [0, 1]"] ;
152 -> 154 ;
155 [label="gini = 0.0\nsamples = 1\nvalue = [0, 1]"] ;
149 -> 155 ;
156 [label="gini = 0.0\nsamples = 1\nvalue = [0, 1]"] ;
148 -> 156 ;
157 [label="gini = 0.0\nsamples = 1\nvalue = [0, 1]"] ;
145 -> 157 ;
158 [label="gini = 0.0\nsamples = 3\nvalue = [0, 3]"] ;
144 -> 158 ;
159 [label="absences <= 1.0\ngini = 0.463\nsamples = 11\nvalue = [7, 4]"] ;
141 -> 159 ;
160 [label="gini = 0.0\nsamples = 3\nvalue = [3, 0]"] ;
159 -> 160 ;
161 [label="absences <= 3.0\ngini = 0.5\nsamples = 8\nvalue = [4, 4]"] ;
159 -> 161 ;
162 [label="gini = 0.0\nsamples = 2\nvalue = [0, 2]"] ;
161 -> 162 ;
163 [label="goout <= 4.5\ngini = 0.444\nsamples = 6\nvalue = [4, 2]"] ;
161 -> 163 ;
164 [label="famrel <= 3.5\ngini = 0.32\nsamples = 5\nvalue = [4, 1]"] ;
163 -> 164 ;
165 [label="gini = 0.0\nsamples = 1\nvalue = [0, 1]"] ;
164 -> 165 ;
166 [label="gini = 0.0\nsamples = 4\nvalue = [4, 0]"] ;
164 -> 166 ;
167 [label="gini = 0.0\nsamples = 1\nvalue = [0, 1]"] ;
163 -> 167 ;
168 [label="gini = 0.0\nsamples = 4\nvalue = [0, 4]"] ;
140 -> 168 ;
169 [label="studytime <= 3.5\ngini = 0.45\nsamples = 41\nvalue = [14, 27]"] ;
37 -> 169 ;
170 [label="freetime <= 3.5\ngini = 0.426\nsamples = 39\nvalue = [12, 27]"] ;
169 -> 170 ;
171 [label="studytime <= 2.5\ngini = 0.32\nsamples = 25\nvalue = [5, 20]"] ;
170 -> 171 ;
172 [label="absences <= 1.0\ngini = 0.18\nsamples = 20\nvalue = [2, 18]"] ;
171 -> 172 ;
173 [label="gini = 0.0\nsamples = 9\nvalue = [0, 9]"] ;
172 -> 173 ;
174 [label="paid <= 0.5\ngini = 0.298\nsamples = 11\nvalue = [2, 9]"] ;
172 -> 174 ;
175 [label="Walc <= 3.5\ngini = 0.375\nsamples = 8\nvalue = [2, 6]"] ;
174 -> 175 ;
176 [label="famsup <= 0.5\ngini = 0.444\nsamples = 6\nvalue = [2, 4]"] ;
175 -> 176 ;
177 [label="gini = 0.0\nsamples = 2\nvalue = [0, 2]"] ;
176 -> 177 ;
178 [label="famrel <= 3.5\ngini = 0.5\nsamples = 4\nvalue = [2, 2]"] ;
176 -> 178 ;
179 [label="gini = 0.0\nsamples = 1\nvalue = [1, 0]"] ;
178 -> 179 ;
180 [label="absences <= 3.0\ngini = 0.444\nsamples = 3\nvalue = [1, 2]"] ;
178 -> 180 ;
181 [label="gini = 0.0\nsamples = 1\nvalue = [1, 0]"] ;
180 -> 181 ;
182 [label="gini = 0.0\nsamples = 2\nvalue = [0, 2]"] ;
180 -> 182 ;
183 [label="gini = 0.0\nsamples = 2\nvalue = [0, 2]"] ;
175 -> 183 ;
184 [label="gini = 0.0\nsamples = 3\nvalue = [0, 3]"] ;
174 -> 184 ;
185 [label="absences <= 3.0\ngini = 0.48\nsamples = 5\nvalue = [3, 2]"] ;
171 -> 185 ;
186 [label="activities <= 0.5\ngini = 0.375\nsamples = 4\nvalue = [3, 1]"] ;
185 -> 186 ;
187 [label="gini = 0.0\nsamples = 1\nvalue = [1, 0]"] ;
186 -> 187 ;
188 [label="paid <= 0.5\ngini = 0.444\nsamples = 3\nvalue = [2, 1]"] ;
186 -> 188 ;
189 [label="gini = 0.5\nsamples = 2\nvalue = [1, 1]"] ;
188 -> 189 ;
190 [label="gini = 0.0\nsamples = 1\nvalue = [1, 0]"] ;
188 -> 190 ;
191 [label="gini = 0.0\nsamples = 1\nvalue = [0, 1]"] ;
185 -> 191 ;
192 [label="paid <= 0.5\ngini = 0.5\nsamples = 14\nvalue = [7, 7]"] ;
170 -> 192 ;
193 [label="famsup <= 0.5\ngini = 0.463\nsamples = 11\nvalue = [4, 7]"] ;
192 -> 193 ;
194 [label="Dalc <= 2.5\ngini = 0.375\nsamples = 4\nvalue = [3, 1]"] ;
193 -> 194 ;
195 [label="gini = 0.0\nsamples = 2\nvalue = [2, 0]"] ;
194 -> 195 ;
196 [label="absences <= 1.0\ngini = 0.5\nsamples = 2\nvalue = [1, 1]"] ;
194 -> 196 ;
197 [label="gini = 0.0\nsamples = 1\nvalue = [0, 1]"] ;
196 -> 197 ;
198 [label="gini = 0.0\nsamples = 1\nvalue = [1, 0]"] ;
196 -> 198 ;
199 [label="famrel <= 4.5\ngini = 0.245\nsamples = 7\nvalue = [1, 6]"] ;
193 -> 199 ;
200 [label="gini = 0.0\nsamples = 5\nvalue = [0, 5]"] ;
199 -> 200 ;
201 [label="gini = 0.5\nsamples = 2\nvalue = [1, 1]"] ;
199 -> 201 ;
202 [label="gini = 0.0\nsamples = 3\nvalue = [3, 0]"] ;
192 -> 202 ;
203 [label="gini = 0.0\nsamples = 2\nvalue = [2, 0]"] ;
169 -> 203 ;
204 [label="Walc <= 3.5\ngini = 0.422\nsamples = 202\nvalue = [61, 141]"] ;
24 -> 204 ;
205 [label="Dalc <= 3.5\ngini = 0.386\nsamples = 161\nvalue = [42, 119]"] ;
204 -> 205 ;
206 [label="internet <= 0.5\ngini = 0.381\nsamples = 160\nvalue = [41, 119]"] ;
205 -> 206 ;
207 [label="absences <= 5.5\ngini = 0.266\nsamples = 38\nvalue = [6, 32]"] ;
206 -> 207 ;
208 [label="freetime <= 2.5\ngini = 0.208\nsamples = 34\nvalue = [4, 30]"] ;
207 -> 208 ;
209 [label="gini = 0.0\nsamples = 16\nvalue = [0, 16]"] ;
208 -> 209 ;
210 [label="studytime <= 3.5\ngini = 0.346\nsamples = 18\nvalue = [4, 14]"] ;
208 -> 210 ;
211 [label="traveltime <= 3.5\ngini = 0.291\nsamples = 17\nvalue = [3, 14]"] ;
210 -> 211 ;
212 [label="activities <= 0.5\ngini = 0.219\nsamples = 16\nvalue = [2, 14]"] ;
211 -> 212 ;
213 [label="gini = 0.0\nsamples = 8\nvalue = [0, 8]"] ;
212 -> 213 ;
214 [label="health <= 2.5\ngini = 0.375\nsamples = 8\nvalue = [2, 6]"] ;
212 -> 214 ;
215 [label="gini = 0.0\nsamples = 2\nvalue = [0, 2]"] ;
214 -> 215 ;
216 [label="absences <= 3.0\ngini = 0.444\nsamples = 6\nvalue = [2, 4]"] ;
214 -> 216 ;
217 [label="famsup <= 0.5\ngini = 0.32\nsamples = 5\nvalue = [1, 4]"] ;
216 -> 217 ;
218 [label="absences <= 1.0\ngini = 0.5\nsamples = 2\nvalue = [1, 1]"] ;
217 -> 218 ;
219 [label="gini = 0.0\nsamples = 1\nvalue = [1, 0]"] ;
218 -> 219 ;
220 [label="gini = 0.0\nsamples = 1\nvalue = [0, 1]"] ;
218 -> 220 ;
221 [label="gini = 0.0\nsamples = 3\nvalue = [0, 3]"] ;
217 -> 221 ;
222 [label="gini = 0.0\nsamples = 1\nvalue = [1, 0]"] ;
216 -> 222 ;
223 [label="gini = 0.0\nsamples = 1\nvalue = [1, 0]"] ;
211 -> 223 ;
224 [label="gini = 0.0\nsamples = 1\nvalue = [1, 0]"] ;
210 -> 224 ;
225 [label="goout <= 2.0\ngini = 0.5\nsamples = 4\nvalue = [2, 2]"] ;
207 -> 225 ;
226 [label="gini = 0.0\nsamples = 1\nvalue = [1, 0]"] ;
225 -> 226 ;
227 [label="activities <= 0.5\ngini = 0.444\nsamples = 3\nvalue = [1, 2]"] ;
225 -> 227 ;
228 [label="gini = 0.0\nsamples = 1\nvalue = [1, 0]"] ;
227 -> 228 ;
229 [label="gini = 0.0\nsamples = 2\nvalue = [0, 2]"] ;
227 -> 229 ;
230 [label="studytime <= 1.5\ngini = 0.409\nsamples = 122\nvalue = [35, 87]"] ;
206 -> 230 ;
231 [label="Walc <= 1.5\ngini = 0.497\nsamples = 26\nvalue = [12, 14]"] ;
230 -> 231 ;
232 [label="health <= 4.5\ngini = 0.165\nsamples = 11\nvalue = [1, 10]"] ;
231 -> 232 ;
233 [label="gini = 0.0\nsamples = 8\nvalue = [0, 8]"] ;
232 -> 233 ;
234 [label="freetime <= 3.5\ngini = 0.444\nsamples = 3\nvalue = [1, 2]"] ;
232 -> 234 ;
235 [label="gini = 0.0\nsamples = 1\nvalue = [1, 0]"] ;
234 -> 235 ;
236 [label="gini = 0.0\nsamples = 2\nvalue = [0, 2]"] ;
234 -> 236 ;
237 [label="absences <= 5.5\ngini = 0.391\nsamples = 15\nvalue = [11, 4]"] ;
231 -> 237 ;
238 [label="famrel <= 4.5\ngini = 0.278\nsamples = 12\nvalue = [10, 2]"] ;
237 -> 238 ;
239 [label="gini = 0.0\nsamples = 8\nvalue = [8, 0]"] ;
238 -> 239 ;
240 [label="Walc <= 2.5\ngini = 0.5\nsamples = 4\nvalue = [2, 2]"] ;
238 -> 240 ;
241 [label="gini = 0.0\nsamples = 2\nvalue = [2, 0]"] ;
240 -> 241 ;
242 [label="gini = 0.0\nsamples = 2\nvalue = [0, 2]"] ;
240 -> 242 ;
243 [label="freetime <= 3.5\ngini = 0.444\nsamples = 3\nvalue = [1, 2]"] ;
237 -> 243 ;
244 [label="gini = 0.0\nsamples = 2\nvalue = [0, 2]"] ;
243 -> 244 ;
245 [label="gini = 0.0\nsamples = 1\nvalue = [1, 0]"] ;
243 -> 245 ;
246 [label="famrel <= 1.5\ngini = 0.364\nsamples = 96\nvalue = [23, 73]"] ;
230 -> 246 ;
247 [label="gini = 0.0\nsamples = 1\nvalue = [1, 0]"] ;
246 -> 247 ;
248 [label="schoolsup <= 0.5\ngini = 0.356\nsamples = 95\nvalue = [22, 73]"] ;
246 -> 248 ;
249 [label="Walc <= 1.5\ngini = 0.331\nsamples = 86\nvalue = [18, 68]"] ;
248 -> 249 ;
250 [label="paid <= 0.5\ngini = 0.405\nsamples = 39\nvalue = [11, 28]"] ;
249 -> 250 ;
251 [label="famrel <= 3.5\ngini = 0.342\nsamples = 32\nvalue = [7, 25]"] ;
250 -> 251 ;
252 [label="studytime <= 2.5\ngini = 0.48\nsamples = 5\nvalue = [3, 2]"] ;
251 -> 252 ;
253 [label="gini = 0.0\nsamples = 2\nvalue = [2, 0]"] ;
252 -> 253 ;
254 [label="absences <= 7.5\ngini = 0.444\nsamples = 3\nvalue = [1, 2]"] ;
252 -> 254 ;
255 [label="gini = 0.0\nsamples = 2\nvalue = [0, 2]"] ;
254 -> 255 ;
256 [label="gini = 0.0\nsamples = 1\nvalue = [1, 0]"] ;
254 -> 256 ;
257 [label="famsup <= 0.5\ngini = 0.252\nsamples = 27\nvalue = [4, 23]"] ;
251 -> 257 ;
258 [label="studytime <= 2.5\ngini = 0.397\nsamples = 11\nvalue = [3, 8]"] ;
257 -> 258 ;
259 [label="absences <= 1.5\ngini = 0.5\nsamples = 6\nvalue = [3, 3]"] ;
258 -> 259 ;
260 [label="gini = 0.0\nsamples = 2\nvalue = [2, 0]"] ;
259 -> 260 ;
261 [label="absences <= 3.0\ngini = 0.375\nsamples = 4\nvalue = [1, 3]"] ;
259 -> 261 ;
262 [label="goout <= 4.0\ngini = 0.5\nsamples = 2\nvalue = [1, 1]"] ;
261 -> 262 ;
263 [label="gini = 0.0\nsamples = 1\nvalue = [1, 0]"] ;
262 -> 263 ;
264 [label="gini = 0.0\nsamples = 1\nvalue = [0, 1]"] ;
262 -> 264 ;
265 [label="gini = 0.0\nsamples = 2\nvalue = [0, 2]"] ;
261 -> 265 ;
266 [label="gini = 0.0\nsamples = 5\nvalue = [0, 5]"] ;
258 -> 266 ;
267 [label="goout <= 3.5\ngini = 0.117\nsamples = 16\nvalue = [1, 15]"] ;
257 -> 267 ;
268 [label="gini = 0.0\nsamples = 13\nvalue = [0, 13]"] ;
267 -> 268 ;
269 [label="famrel <= 4.5\ngini = 0.444\nsamples = 3\nvalue = [1, 2]"] ;
267 -> 269 ;
270 [label="gini = 0.0\nsamples = 2\nvalue = [0, 2]"] ;
269 -> 270 ;
271 [label="gini = 0.0\nsamples = 1\nvalue = [1, 0]"] ;
269 -> 271 ;
272 [label="goout <= 2.5\ngini = 0.49\nsamples = 7\nvalue = [4, 3]"] ;
250 -> 272 ;
273 [label="absences <= 5.0\ngini = 0.375\nsamples = 4\nvalue = [1, 3]"] ;
272 -> 273 ;
274 [label="gini = 0.0\nsamples = 2\nvalue = [0, 2]"] ;
273 -> 274 ;
275 [label="famrel <= 4.5\ngini = 0.5\nsamples = 2\nvalue = [1, 1]"] ;
273 -> 275 ;
276 [label="gini = 0.0\nsamples = 1\nvalue = [1, 0]"] ;
275 -> 276 ;
277 [label="gini = 0.0\nsamples = 1\nvalue = [0, 1]"] ;
275 -> 277 ;
278 [label="gini = 0.0\nsamples = 3\nvalue = [3, 0]"] ;
272 -> 278 ;
279 [label="Dalc <= 2.5\ngini = 0.254\nsamples = 47\nvalue = [7, 40]"] ;
249 -> 279 ;
280 [label="traveltime <= 3.5\ngini = 0.227\nsamples = 46\nvalue = [6, 40]"] ;
279 -> 280 ;
281 [label="famrel <= 2.5\ngini = 0.201\nsamples = 44\nvalue = [5, 39]"] ;
280 -> 281 ;
282 [label="paid <= 0.5\ngini = 0.5\nsamples = 2\nvalue = [1, 1]"] ;
281 -> 282 ;
283 [label="gini = 0.0\nsamples = 1\nvalue = [0, 1]"] ;
282 -> 283 ;
284 [label="gini = 0.0\nsamples = 1\nvalue = [1, 0]"] ;
282 -> 284 ;
285 [label="famsup <= 0.5\ngini = 0.172\nsamples = 42\nvalue = [4, 38]"] ;
281 -> 285 ;
286 [label="gini = 0.0\nsamples = 14\nvalue = [0, 14]"] ;
285 -> 286 ;
287 [label="Dalc <= 1.5\ngini = 0.245\nsamples = 28\nvalue = [4, 24]"] ;
285 -> 287 ;
288 [label="Walc <= 2.5\ngini = 0.332\nsamples = 19\nvalue = [4, 15]"] ;
287 -> 288 ;
289 [label="goout <= 4.0\ngini = 0.231\nsamples = 15\nvalue = [2, 13]"] ;
288 -> 289 ;
290 [label="absences <= 1.0\ngini = 0.153\nsamples = 12\nvalue = [1, 11]"] ;
289 -> 290 ;
291 [label="health <= 3.5\ngini = 0.444\nsamples = 3\nvalue = [1, 2]"] ;
290 -> 291 ;
292 [label="gini = 0.0\nsamples = 1\nvalue = [0, 1]"] ;
291 -> 292 ;
293 [label="freetime <= 3.5\ngini = 0.5\nsamples = 2\nvalue = [1, 1]"] ;
291 -> 293 ;
294 [label="gini = 0.0\nsamples = 1\nvalue = [0, 1]"] ;
293 -> 294 ;
295 [label="gini = 0.0\nsamples = 1\nvalue = [1, 0]"] ;
293 -> 295 ;
296 [label="gini = 0.0\nsamples = 9\nvalue = [0, 9]"] ;
290 -> 296 ;
297 [label="absences <= 1.0\ngini = 0.444\nsamples = 3\nvalue = [1, 2]"] ;
289 -> 297 ;
298 [label="gini = 0.0\nsamples = 2\nvalue = [0, 2]"] ;
297 -> 298 ;
299 [label="gini = 0.0\nsamples = 1\nvalue = [1, 0]"] ;
297 -> 299 ;
300 [label="goout <= 3.5\ngini = 0.5\nsamples = 4\nvalue = [2, 2]"] ;
288 -> 300 ;
301 [label="health <= 4.0\ngini = 0.444\nsamples = 3\nvalue = [2, 1]"] ;
300 -> 301 ;
302 [label="absences <= 3.0\ngini = 0.5\nsamples = 2\nvalue = [1, 1]"] ;
301 -> 302 ;
303 [label="gini = 0.0\nsamples = 1\nvalue = [1, 0]"] ;
302 -> 303 ;
304 [label="gini = 0.0\nsamples = 1\nvalue = [0, 1]"] ;
302 -> 304 ;
305 [label="gini = 0.0\nsamples = 1\nvalue = [1, 0]"] ;
301 -> 305 ;
306 [label="gini = 0.0\nsamples = 1\nvalue = [0, 1]"] ;
300 -> 306 ;
307 [label="gini = 0.0\nsamples = 9\nvalue = [0, 9]"] ;
287 -> 307 ;
308 [label="absences <= 3.0\ngini = 0.5\nsamples = 2\nvalue = [1, 1]"] ;
280 -> 308 ;
309 [label="gini = 0.0\nsamples = 1\nvalue = [1, 0]"] ;
308 -> 309 ;
310 [label="gini = 0.0\nsamples = 1\nvalue = [0, 1]"] ;
308 -> 310 ;
311 [label="gini = 0.0\nsamples = 1\nvalue = [1, 0]"] ;
279 -> 311 ;
312 [label="famrel <= 4.5\ngini = 0.494\nsamples = 9\nvalue = [4, 5]"] ;
248 -> 312 ;
313 [label="absences <= 3.0\ngini = 0.408\nsamples = 7\nvalue = [2, 5]"] ;
312 -> 313 ;
314 [label="absences <= 1.0\ngini = 0.5\nsamples = 4\nvalue = [2, 2]"] ;
313 -> 314 ;
315 [label="studytime <= 3.0\ngini = 0.444\nsamples = 3\nvalue = [1, 2]"] ;
314 -> 315 ;
316 [label="gini = 0.0\nsamples = 2\nvalue = [0, 2]"] ;
315 -> 316 ;
317 [label="gini = 0.0\nsamples = 1\nvalue = [1, 0]"] ;
315 -> 317 ;
318 [label="gini = 0.0\nsamples = 1\nvalue = [1, 0]"] ;
314 -> 318 ;
319 [label="gini = 0.0\nsamples = 3\nvalue = [0, 3]"] ;
313 -> 319 ;
320 [label="gini = 0.0\nsamples = 2\nvalue = [2, 0]"] ;
312 -> 320 ;
321 [label="gini = 0.0\nsamples = 1\nvalue = [1, 0]"] ;
205 -> 321 ;
322 [label="health <= 1.5\ngini = 0.497\nsamples = 41\nvalue = [19, 22]"] ;
204 -> 322 ;
323 [label="gini = 0.0\nsamples = 5\nvalue = [0, 5]"] ;
322 -> 323 ;
324 [label="paid <= 0.5\ngini = 0.498\nsamples = 36\nvalue = [19, 17]"] ;
322 -> 324 ;
325 [label="Dalc <= 1.5\ngini = 0.498\nsamples = 32\nvalue = [15, 17]"] ;
324 -> 325 ;
326 [label="goout <= 3.5\ngini = 0.298\nsamples = 11\nvalue = [2, 9]"] ;
325 -> 326 ;
327 [label="studytime <= 1.5\ngini = 0.5\nsamples = 4\nvalue = [2, 2]"] ;
326 -> 327 ;
328 [label="gini = 0.0\nsamples = 2\nvalue = [0, 2]"] ;
327 -> 328 ;
329 [label="gini = 0.0\nsamples = 2\nvalue = [2, 0]"] ;
327 -> 329 ;
330 [label="gini = 0.0\nsamples = 7\nvalue = [0, 7]"] ;
326 -> 330 ;
331 [label="schoolsup <= 0.5\ngini = 0.472\nsamples = 21\nvalue = [13, 8]"] ;
325 -> 331 ;
332 [label="famrel <= 3.5\ngini = 0.401\nsamples = 18\nvalue = [13, 5]"] ;
331 -> 332 ;
333 [label="Dalc <= 4.0\ngini = 0.48\nsamples = 5\nvalue = [2, 3]"] ;
332 -> 333 ;
334 [label="famrel <= 2.5\ngini = 0.5\nsamples = 4\nvalue = [2, 2]"] ;
333 -> 334 ;
335 [label="absences <= 4.0\ngini = 0.444\nsamples = 3\nvalue = [2, 1]"] ;
334 -> 335 ;
336 [label="gini = 0.0\nsamples = 1\nvalue = [0, 1]"] ;
335 -> 336 ;
337 [label="gini = 0.0\nsamples = 2\nvalue = [2, 0]"] ;
335 -> 337 ;
338 [label="gini = 0.0\nsamples = 1\nvalue = [0, 1]"] ;
334 -> 338 ;
339 [label="gini = 0.0\nsamples = 1\nvalue = [0, 1]"] ;
333 -> 339 ;
340 [label="goout <= 4.5\ngini = 0.26\nsamples = 13\nvalue = [11, 2]"] ;
332 -> 340 ;
341 [label="Dalc <= 2.5\ngini = 0.444\nsamples = 6\nvalue = [4, 2]"] ;
340 -> 341 ;
342 [label="gini = 0.0\nsamples = 3\nvalue = [3, 0]"] ;
341 -> 342 ;
343 [label="Dalc <= 3.5\ngini = 0.444\nsamples = 3\nvalue = [1, 2]"] ;
341 -> 343 ;
344 [label="absences <= 2.0\ngini = 0.5\nsamples = 2\nvalue = [1, 1]"] ;
343 -> 344 ;
345 [label="gini = 0.0\nsamples = 1\nvalue = [1, 0]"] ;
344 -> 345 ;
346 [label="gini = 0.0\nsamples = 1\nvalue = [0, 1]"] ;
344 -> 346 ;
347 [label="gini = 0.0\nsamples = 1\nvalue = [0, 1]"] ;
343 -> 347 ;
348 [label="gini = 0.0\nsamples = 7\nvalue = [7, 0]"] ;
340 -> 348 ;
349 [label="gini = 0.0\nsamples = 3\nvalue = [0, 3]"] ;
331 -> 349 ;
350 [label="gini = 0.0\nsamples = 4\nvalue = [4, 0]"] ;
324 -> 350 ;
351 [label="internet <= 0.5\ngini = 0.493\nsamples = 77\nvalue = [34, 43]"] ;
23 -> 351 ;
352 [label="studytime <= 3.0\ngini = 0.219\nsamples = 8\nvalue = [7, 1]"] ;
351 -> 352 ;
353 [label="gini = 0.0\nsamples = 7\nvalue = [7, 0]"] ;
352 -> 353 ;
354 [label="gini = 0.0\nsamples = 1\nvalue = [0, 1]"] ;
352 -> 354 ;
355 [label="freetime <= 3.5\ngini = 0.476\nsamples = 69\nvalue = [27, 42]"] ;
351 -> 355 ;
356 [label="health <= 3.5\ngini = 0.393\nsamples = 41\nvalue = [11, 30]"] ;
355 -> 356 ;
357 [label="schoolsup <= 0.5\ngini = 0.469\nsamples = 24\nvalue = [9, 15]"] ;
356 -> 357 ;
358 [label="studytime <= 1.5\ngini = 0.434\nsamples = 22\nvalue = [7, 15]"] ;
357 -> 358 ;
359 [label="Walc <= 4.5\ngini = 0.48\nsamples = 5\nvalue = [3, 2]"] ;
358 -> 359 ;
360 [label="activities <= 0.5\ngini = 0.375\nsamples = 4\nvalue = [3, 1]"] ;
359 -> 360 ;
361 [label="absences <= 19.5\ngini = 0.5\nsamples = 2\nvalue = [1, 1]"] ;
360 -> 361 ;
362 [label="gini = 0.0\nsamples = 1\nvalue = [1, 0]"] ;
361 -> 362 ;
363 [label="gini = 0.0\nsamples = 1\nvalue = [0, 1]"] ;
361 -> 363 ;
364 [label="gini = 0.0\nsamples = 2\nvalue = [2, 0]"] ;
360 -> 364 ;
365 [label="gini = 0.0\nsamples = 1\nvalue = [0, 1]"] ;
359 -> 365 ;
366 [label="studytime <= 3.5\ngini = 0.36\nsamples = 17\nvalue = [4, 13]"] ;
358 -> 366 ;
367 [label="absences <= 44.0\ngini = 0.305\nsamples = 16\nvalue = [3, 13]"] ;
366 -> 367 ;
368 [label="traveltime <= 1.5\ngini = 0.231\nsamples = 15\nvalue = [2, 13]"] ;
367 -> 368 ;
369 [label="gini = 0.0\nsamples = 10\nvalue = [0, 10]"] ;
368 -> 369 ;
370 [label="health <= 1.5\ngini = 0.48\nsamples = 5\nvalue = [2, 3]"] ;
368 -> 370 ;
371 [label="gini = 0.0\nsamples = 2\nvalue = [0, 2]"] ;
370 -> 371 ;
372 [label="freetime <= 2.5\ngini = 0.444\nsamples = 3\nvalue = [2, 1]"] ;
370 -> 372 ;
373 [label="gini = 0.0\nsamples = 1\nvalue = [0, 1]"] ;
372 -> 373 ;
374 [label="gini = 0.0\nsamples = 2\nvalue = [2, 0]"] ;
372 -> 374 ;
375 [label="gini = 0.0\nsamples = 1\nvalue = [1, 0]"] ;
367 -> 375 ;
376 [label="gini = 0.0\nsamples = 1\nvalue = [1, 0]"] ;
366 -> 376 ;
377 [label="gini = 0.0\nsamples = 2\nvalue = [2, 0]"] ;
357 -> 377 ;
378 [label="goout <= 3.5\ngini = 0.208\nsamples = 17\nvalue = [2, 15]"] ;
356 -> 378 ;
379 [label="gini = 0.0\nsamples = 11\nvalue = [0, 11]"] ;
378 -> 379 ;
380 [label="health <= 4.5\ngini = 0.444\nsamples = 6\nvalue = [2, 4]"] ;
378 -> 380 ;
381 [label="famrel <= 3.5\ngini = 0.32\nsamples = 5\nvalue = [1, 4]"] ;
380 -> 381 ;
382 [label="gini = 0.0\nsamples = 1\nvalue = [1, 0]"] ;
381 -> 382 ;
383 [label="gini = 0.0\nsamples = 4\nvalue = [0, 4]"] ;
381 -> 383 ;
384 [label="gini = 0.0\nsamples = 1\nvalue = [1, 0]"] ;
380 -> 384 ;
385 [label="traveltime <= 1.5\ngini = 0.49\nsamples = 28\nvalue = [16, 12]"] ;
355 -> 385 ;
386 [label="goout <= 2.5\ngini = 0.499\nsamples = 23\nvalue = [11, 12]"] ;
385 -> 386 ;
387 [label="gini = 0.0\nsamples = 4\nvalue = [0, 4]"] ;
386 -> 387 ;
388 [label="freetime <= 4.5\ngini = 0.488\nsamples = 19\nvalue = [11, 8]"] ;
386 -> 388 ;
389 [label="Walc <= 3.5\ngini = 0.486\nsamples = 12\nvalue = [5, 7]"] ;
388 -> 389 ;
390 [label="health <= 2.5\ngini = 0.494\nsamples = 9\nvalue = [5, 4]"] ;
389 -> 390 ;
391 [label="gini = 0.0\nsamples = 1\nvalue = [0, 1]"] ;
390 -> 391 ;
392 [label="absences <= 11.0\ngini = 0.469\nsamples = 8\nvalue = [5, 3]"] ;
390 -> 392 ;
393 [label="gini = 0.0\nsamples = 3\nvalue = [3, 0]"] ;
392 -> 393 ;
394 [label="absences <= 18.0\ngini = 0.48\nsamples = 5\nvalue = [2, 3]"] ;
392 -> 394 ;
395 [label="famrel <= 2.5\ngini = 0.375\nsamples = 4\nvalue = [1, 3]"] ;
394 -> 395 ;
396 [label="absences <= 13.0\ngini = 0.5\nsamples = 2\nvalue = [1, 1]"] ;
395 -> 396 ;
397 [label="gini = 0.0\nsamples = 1\nvalue = [1, 0]"] ;
396 -> 397 ;
398 [label="gini = 0.0\nsamples = 1\nvalue = [0, 1]"] ;
396 -> 398 ;
399 [label="gini = 0.0\nsamples = 2\nvalue = [0, 2]"] ;
395 -> 399 ;
400 [label="gini = 0.0\nsamples = 1\nvalue = [1, 0]"] ;
394 -> 400 ;
401 [label="gini = 0.0\nsamples = 3\nvalue = [0, 3]"] ;
389 -> 401 ;
402 [label="studytime <= 3.0\ngini = 0.245\nsamples = 7\nvalue = [6, 1]"] ;
388 -> 402 ;
403 [label="gini = 0.0\nsamples = 6\nvalue = [6, 0]"] ;
402 -> 403 ;
404 [label="gini = 0.0\nsamples = 1\nvalue = [0, 1]"] ;
402 -> 404 ;
405 [label="gini = 0.0\nsamples = 5\nvalue = [5, 0]"] ;
385 -> 405 ;
406 [label="absences <= 23.0\ngini = 0.342\nsamples = 137\nvalue = [107, 30]"] ;
0 -> 406 [labeldistance=2.5, labelangle=-45, headlabel="False"] ;
407 [label="absences <= 2.5\ngini = 0.316\nsamples = 132\nvalue = [106, 26]"] ;
406 -> 407 ;
408 [label="famsup <= 0.5\ngini = 0.18\nsamples = 60\nvalue = [54, 6]"] ;
407 -> 408 ;
409 [label="studytime <= 2.5\ngini = 0.32\nsamples = 30\nvalue = [24, 6]"] ;
408 -> 409 ;
410 [label="internet <= 0.5\ngini = 0.245\nsamples = 28\nvalue = [24, 4]"] ;
409 -> 410 ;
411 [label="freetime <= 3.5\ngini = 0.391\nsamples = 15\nvalue = [11, 4]"] ;
410 -> 411 ;
412 [label="gini = 0.0\nsamples = 6\nvalue = [6, 0]"] ;
411 -> 412 ;
413 [label="activities <= 0.5\ngini = 0.494\nsamples = 9\nvalue = [5, 4]"] ;
411 -> 413 ;
414 [label="freetime <= 4.5\ngini = 0.32\nsamples = 5\nvalue = [4, 1]"] ;
413 -> 414 ;
415 [label="traveltime <= 2.0\ngini = 0.444\nsamples = 3\nvalue = [2, 1]"] ;
414 -> 415 ;
416 [label="failures <= 1.5\ngini = 0.5\nsamples = 2\nvalue = [1, 1]"] ;
415 -> 416 ;
417 [label="gini = 0.0\nsamples = 1\nvalue = [0, 1]"] ;
416 -> 417 ;
418 [label="gini = 0.0\nsamples = 1\nvalue = [1, 0]"] ;
416 -> 418 ;
419 [label="gini = 0.0\nsamples = 1\nvalue = [1, 0]"] ;
415 -> 419 ;
420 [label="gini = 0.0\nsamples = 2\nvalue = [2, 0]"] ;
414 -> 420 ;
421 [label="Walc <= 3.5\ngini = 0.375\nsamples = 4\nvalue = [1, 3]"] ;
413 -> 421 ;
422 [label="gini = 0.0\nsamples = 3\nvalue = [0, 3]"] ;
421 -> 422 ;
423 [label="gini = 0.0\nsamples = 1\nvalue = [1, 0]"] ;
421 -> 423 ;
424 [label="gini = 0.0\nsamples = 13\nvalue = [13, 0]"] ;
410 -> 424 ;
425 [label="gini = 0.0\nsamples = 2\nvalue = [0, 2]"] ;
409 -> 425 ;
426 [label="gini = 0.0\nsamples = 30\nvalue = [30, 0]"] ;
408 -> 426 ;
427 [label="failures <= 1.5\ngini = 0.401\nsamples = 72\nvalue = [52, 20]"] ;
407 -> 427 ;
428 [label="freetime <= 4.5\ngini = 0.465\nsamples = 49\nvalue = [31, 18]"] ;
427 -> 428 ;
429 [label="famsup <= 0.5\ngini = 0.427\nsamples = 42\nvalue = [29, 13]"] ;
428 -> 429 ;
430 [label="goout <= 3.5\ngini = 0.5\nsamples = 20\nvalue = [10, 10]"] ;
429 -> 430 ;
431 [label="health <= 4.5\ngini = 0.459\nsamples = 14\nvalue = [9, 5]"] ;
430 -> 431 ;
432 [label="gini = 0.0\nsamples = 6\nvalue = [6, 0]"] ;
431 -> 432 ;
433 [label="schoolsup <= 0.5\ngini = 0.469\nsamples = 8\nvalue = [3, 5]"] ;
431 -> 433 ;
434 [label="gini = 0.0\nsamples = 3\nvalue = [0, 3]"] ;
433 -> 434 ;
435 [label="studytime <= 1.5\ngini = 0.48\nsamples = 5\nvalue = [3, 2]"] ;
433 -> 435 ;
436 [label="gini = 0.0\nsamples = 1\nvalue = [1, 0]"] ;
435 -> 436 ;
437 [label="absences <= 9.0\ngini = 0.5\nsamples = 4\nvalue = [2, 2]"] ;
435 -> 437 ;
438 [label="gini = 0.0\nsamples = 1\nvalue = [0, 1]"] ;
437 -> 438 ;
439 [label="Walc <= 1.5\ngini = 0.444\nsamples = 3\nvalue = [2, 1]"] ;
437 -> 439 ;
440 [label="gini = 0.0\nsamples = 1\nvalue = [1, 0]"] ;
439 -> 440 ;
441 [label="gini = 0.5\nsamples = 2\nvalue = [1, 1]"] ;
439 -> 441 ;
442 [label="Walc <= 4.5\ngini = 0.278\nsamples = 6\nvalue = [1, 5]"] ;
430 -> 442 ;
443 [label="gini = 0.0\nsamples = 4\nvalue = [0, 4]"] ;
442 -> 443 ;
444 [label="gini = 0.5\nsamples = 2\nvalue = [1, 1]"] ;
442 -> 444 ;
445 [label="freetime <= 2.5\ngini = 0.236\nsamples = 22\nvalue = [19, 3]"] ;
429 -> 445 ;
446 [label="Dalc <= 1.5\ngini = 0.48\nsamples = 5\nvalue = [3, 2]"] ;
445 -> 446 ;
447 [label="absences <= 17.0\ngini = 0.444\nsamples = 3\nvalue = [1, 2]"] ;
446 -> 447 ;
448 [label="gini = 0.0\nsamples = 2\nvalue = [0, 2]"] ;
447 -> 448 ;
449 [label="gini = 0.0\nsamples = 1\nvalue = [1, 0]"] ;
447 -> 449 ;
450 [label="gini = 0.0\nsamples = 2\nvalue = [2, 0]"] ;
446 -> 450 ;
451 [label="paid <= 0.5\ngini = 0.111\nsamples = 17\nvalue = [16, 1]"] ;
445 -> 451 ;
452 [label="gini = 0.0\nsamples = 14\nvalue = [14, 0]"] ;
451 -> 452 ;
453 [label="Dalc <= 1.5\ngini = 0.444\nsamples = 3\nvalue = [2, 1]"] ;
451 -> 453 ;
454 [label="gini = 0.0\nsamples = 1\nvalue = [0, 1]"] ;
453 -> 454 ;
455 [label="gini = 0.0\nsamples = 2\nvalue = [2, 0]"] ;
453 -> 455 ;
456 [label="traveltime <= 3.0\ngini = 0.408\nsamples = 7\nvalue = [2, 5]"] ;
428 -> 456 ;
457 [label="goout <= 4.5\ngini = 0.278\nsamples = 6\nvalue = [1, 5]"] ;
456 -> 457 ;
458 [label="goout <= 3.0\ngini = 0.444\nsamples = 3\nvalue = [1, 2]"] ;
457 -> 458 ;
459 [label="gini = 0.0\nsamples = 2\nvalue = [0, 2]"] ;
458 -> 459 ;
460 [label="gini = 0.0\nsamples = 1\nvalue = [1, 0]"] ;
458 -> 460 ;
461 [label="gini = 0.0\nsamples = 3\nvalue = [0, 3]"] ;
457 -> 461 ;
462 [label="gini = 0.0\nsamples = 1\nvalue = [1, 0]"] ;
456 -> 462 ;
463 [label="freetime <= 1.5\ngini = 0.159\nsamples = 23\nvalue = [21, 2]"] ;
427 -> 463 ;
464 [label="gini = 0.0\nsamples = 1\nvalue = [0, 1]"] ;
463 -> 464 ;
465 [label="studytime <= 2.5\ngini = 0.087\nsamples = 22\nvalue = [21, 1]"] ;
463 -> 465 ;
466 [label="gini = 0.0\nsamples = 19\nvalue = [19, 0]"] ;
465 -> 466 ;
467 [label="famrel <= 4.5\ngini = 0.444\nsamples = 3\nvalue = [2, 1]"] ;
465 -> 467 ;
468 [label="gini = 0.0\nsamples = 2\nvalue = [2, 0]"] ;
467 -> 468 ;
469 [label="gini = 0.0\nsamples = 1\nvalue = [0, 1]"] ;
467 -> 469 ;
470 [label="freetime <= 3.5\ngini = 0.32\nsamples = 5\nvalue = [1, 4]"] ;
406 -> 470 ;
471 [label="gini = 0.0\nsamples = 4\nvalue = [0, 4]"] ;
470 -> 471 ;
472 [label="gini = 0.0\nsamples = 1\nvalue = [1, 0]"] ;
470 -> 472 ;
}